digraph Tree {
node [shape=box, style="filled, rounded", color="black", fontname="helvetica"] ;
edge [fontname="helvetica"] ;
0 [label="B365H <= 1.77\ngini = 0.64\nsamples = 11166\nvalue = [4389, 5142, 8190]", fillcolor="#e0cff9"] ;
1 [label="last_three_matches_hometeam <= 6.5\ngini = 0.48\nsamples = 3414\nvalue = [1065, 640, 3693]", fillcolor="#b387ef"] ;
0 -> 1 [labeldistance=2.5, labelangle=45, headlabel="True"] ;
2 [label="B365A <= 10.25\ngini = 0.51\nsamples = 2296\nvalue = [786, 489, 2392]", fillcolor="#b991f1"] ;
1 -> 2 ;
3 [label="average_age_awayteam <= 29.32\ngini = 0.54\nsamples = 1898\nvalue = [702, 455, 1864]", fillcolor="#c09cf2"] ;
2 -> 3 ;
4 [label="B365A <= 7.75\ngini = 0.54\nsamples = 1836\nvalue = [665, 432, 1818]", fillcolor="#be9af2"] ;
3 -> 4 ;
5 [label="average_weight_awayteam <= 180.41\ngini = 0.55\nsamples = 1423\nvalue = [523, 364, 1362]", fillcolor="#c29ff2"] ;
4 -> 5 ;
6 [label="gini = 0.55\nsamples = 1403\nvalue = [511, 355, 1355]", fillcolor="#c19df2"] ;
5 -> 6 ;
7 [label="gini = 0.65\nsamples = 20\nvalue = [12, 9, 7]", fillcolor="#fbebe0"] ;
5 -> 7 ;
8 [label="average_rating_awayteam <= 69.24\ngini = 0.48\nsamples = 413\nvalue = [142, 68, 456]", fillcolor="#b388ef"] ;
4 -> 8 ;
9 [label="gini = 0.49\nsamples = 201\nvalue = [87, 26, 214]", fillcolor="#bc96f1"] ;
8 -> 9 ;
10 [label="gini = 0.45\nsamples = 212\nvalue = [55, 42, 242]", fillcolor="#ac7dee"] ;
8 -> 10 ;
11 [label="average_age_hometeam <= 28.14\ngini = 0.64\nsamples = 62\nvalue = [37, 23, 46]", fillcolor="#efe5fc"] ;
3 -> 11 ;
12 [label="B365D <= 3.55\ngini = 0.62\nsamples = 56\nvalue = [27, 20, 46]", fillcolor="#dbc6f8"] ;
11 -> 12 ;
13 [label="gini = 0.59\nsamples = 10\nvalue = [4, 10, 4]", fillcolor="#aaf4c9"] ;
12 -> 13 ;
14 [label="gini = 0.57\nsamples = 46\nvalue = [23, 10, 42]", fillcolor="#d1b7f6"] ;
12 -> 14 ;
15 [label="gini = 0.36\nsamples = 6\nvalue = [10, 3, 0]", fillcolor="#eda774"] ;
11 -> 15 ;
16 [label="B365H <= 1.21\ngini = 0.31\nsamples = 398\nvalue = [84, 34, 528]", fillcolor="#9b63ea"] ;
2 -> 16 ;
17 [label="average_weight_hometeam <= 156.73\ngini = 0.2\nsamples = 190\nvalue = [23, 12, 285]", fillcolor="#9050e8"] ;
16 -> 17 ;
18 [label="gini = 0.44\nsamples = 2\nvalue = [2, 0, 1]", fillcolor="#f2c09c"] ;
17 -> 18 ;
19 [label="last_three_matches_awayteam <= 1.5\ngini = 0.19\nsamples = 188\nvalue = [21, 12, 284]", fillcolor="#8f4fe8"] ;
17 -> 19 ;
20 [label="gini = 0.32\nsamples = 57\nvalue = [12, 5, 73]", fillcolor="#9c64eb"] ;
19 -> 20 ;
21 [label="gini = 0.13\nsamples = 131\nvalue = [9, 7, 211]", fillcolor="#8a48e7"] ;
19 -> 21 ;
22 [label="average_height_awayteam <= 181.14\ngini = 0.4\nsamples = 208\nvalue = [61, 22, 243]", fillcolor="#a877ed"] ;
16 -> 22 ;
23 [label="average_rating_hometeam <= 81.14\ngini = 0.18\nsamples = 65\nvalue = [7, 3, 94]", fillcolor="#8e4de8"] ;
22 -> 23 ;
24 [label="gini = 0.12\nsamples = 58\nvalue = [3, 3, 86]", fillcolor="#8946e7"] ;
23 -> 24 ;
25 [label="gini = 0.44\nsamples = 7\nvalue = [4, 0, 8]", fillcolor="#c09cf2"] ;
23 -> 25 ;
26 [label="average_weight_awayteam <= 166.14\ngini = 0.48\nsamples = 143\nvalue = [54, 19, 149]", fillcolor="#b88ff0"] ;
22 -> 26 ;
27 [label="gini = 0.47\nsamples = 11\nvalue = [12, 0, 7]", fillcolor="#f4caac"] ;
26 -> 27 ;
28 [label="gini = 0.46\nsamples = 132\nvalue = [42, 19, 142]", fillcolor="#b184ef"] ;
26 -> 28 ;
29 [label="B365A <= 8.25\ngini = 0.4\nsamples = 1118\nvalue = [279, 151, 1301]", fillcolor="#a674ed"] ;
1 -> 29 ;
30 [label="average_weight_awayteam <= 162.59\ngini = 0.52\nsamples = 490\nvalue = [175, 97, 491]", fillcolor="#bb95f1"] ;
29 -> 30 ;
31 [label="average_rating_awayteam <= 73.45\ngini = 0.66\nsamples = 32\nvalue = [17, 15, 19]", fillcolor="#f8f3fd"] ;
30 -> 31 ;
32 [label="average_weight_awayteam <= 160.45\ngini = 0.64\nsamples = 27\nvalue = [15, 9, 19]", fillcolor="#ede3fb"] ;
31 -> 32 ;
33 [label="gini = 0.52\nsamples = 15\nvalue = [2, 7, 15]", fillcolor="#c4a2f3"] ;
32 -> 33 ;
34 [label="gini = 0.48\nsamples = 12\nvalue = [13, 2, 4]", fillcolor="#efb388"] ;
32 -> 34 ;
35 [label="gini = 0.38\nsamples = 5\nvalue = [2, 6, 0]", fillcolor="#7beeab"] ;
31 -> 35 ;
36 [label="average_rating_hometeam <= 59.41\ngini = 0.5\nsamples = 458\nvalue = [158, 82, 472]", fillcolor="#b88ff0"] ;
30 -> 36 ;
37 [label="gini = 0.2\nsamples = 4\nvalue = [8, 1, 0]", fillcolor="#e89152"] ;
36 -> 37 ;
38 [label="stage <= 1.5\ngini = 0.49\nsamples = 454\nvalue = [150, 81, 472]", fillcolor="#b68cf0"] ;
36 -> 38 ;
39 [label="gini = 0.6\nsamples = 11\nvalue = [9, 5, 3]", fillcolor="#f6d5bd"] ;
38 -> 39 ;
40 [label="gini = 0.48\nsamples = 443\nvalue = [141, 76, 469]", fillcolor="#b388ef"] ;
38 -> 40 ;
41 [label="average_age_hometeam <= 22.05\ngini = 0.29\nsamples = 628\nvalue = [104, 54, 810]", fillcolor="#985dea"] ;
29 -> 41 ;
42 [label="gini = 0.38\nsamples = 5\nvalue = [6, 0, 2]", fillcolor="#eeab7b"] ;
41 -> 42 ;
43 [label="average_rating_hometeam <= 80.23\ngini = 0.28\nsamples = 623\nvalue = [98, 54, 808]", fillcolor="#975cea"] ;
41 -> 43 ;
44 [label="average_rating_awayteam <= 66.52\ngini = 0.31\nsamples = 455\nvalue = [83, 45, 577]", fillcolor="#9b62ea"] ;
43 -> 44 ;
45 [label="gini = 0.15\nsamples = 163\nvalue = [12, 8, 230]", fillcolor="#8c4ae7"] ;
44 -> 45 ;
46 [label="gini = 0.39\nsamples = 292\nvalue = [71, 37, 347]", fillcolor="#a471ec"] ;
44 -> 46 ;
47 [label="last_three_matches_awayteam <= 8.0\ngini = 0.17\nsamples = 168\nvalue = [15, 9, 231]", fillcolor="#8e4de8"] ;
43 -> 47 ;
48 [label="gini = 0.15\nsamples = 163\nvalue = [11, 9, 227]", fillcolor="#8c4ae7"] ;
47 -> 48 ;
49 [label="gini = 0.5\nsamples = 5\nvalue = [4, 0, 4]", fillcolor="#ffffff"] ;
47 -> 49 ;
50 [label="B365D <= 3.77\ngini = 0.66\nsamples = 7752\nvalue = [3324, 4502, 4497]", fillcolor="#ffffff"] ;
0 -> 50 [labeldistance=2.5, labelangle=-45, headlabel="False"] ;
51 [label="average_weight_awayteam <= 179.14\ngini = 0.66\nsamples = 6926\nvalue = [3064, 3670, 4293]", fillcolor="#f4eefd"] ;
50 -> 51 ;
52 [label="B365A <= 2.73\ngini = 0.66\nsamples = 6633\nvalue = [2991, 3483, 4091]", fillcolor="#f4eefd"] ;
51 -> 52 ;
53 [label="B365H <= 3.55\ngini = 0.65\nsamples = 2298\nvalue = [947, 1626, 1062]", fillcolor="#d4f9e3"] ;
52 -> 53 ;
54 [label="B365D <= 2.95\ngini = 0.66\nsamples = 1488\nvalue = [636, 947, 770]", fillcolor="#e9fcf1"] ;
53 -> 54 ;
55 [label="gini = 0.32\nsamples = 9\nvalue = [13, 2, 1]", fillcolor="#eb9c63"] ;
54 -> 55 ;
56 [label="gini = 0.66\nsamples = 1479\nvalue = [623, 945, 769]", fillcolor="#e9fcf1"] ;
54 -> 56 ;
57 [label="average_height_hometeam <= 186.86\ngini = 0.61\nsamples = 810\nvalue = [311, 679, 292]", fillcolor="#b4f5cf"] ;
53 -> 57 ;
58 [label="gini = 0.61\nsamples = 807\nvalue = [305, 679, 292]", fillcolor="#b3f5ce"] ;
57 -> 58 ;
59 [label="gini = 0.0\nsamples = 3\nvalue = [6, 0, 0]", fillcolor="#e58139"] ;
57 -> 59 ;
60 [label="average_rating_hometeam <= 66.65\ngini = 0.65\nsamples = 4335\nvalue = [2044, 1857, 3029]", fillcolor="#e6d7fa"] ;
52 -> 60 ;
61 [label="average_weight_hometeam <= 157.59\ngini = 0.66\nsamples = 1002\nvalue = [494, 512, 584]", fillcolor="#f7f2fd"] ;
60 -> 61 ;
62 [label="gini = 0.17\nsamples = 7\nvalue = [10, 1, 0]", fillcolor="#e88e4d"] ;
61 -> 62 ;
63 [label="gini = 0.66\nsamples = 995\nvalue = [484, 511, 584]", fillcolor="#f6f1fd"] ;
61 -> 63 ;
64 [label="average_age_awayteam <= 23.41\ngini = 0.64\nsamples = 3333\nvalue = [1550, 1345, 2445]", fillcolor="#e1d0f9"] ;
60 -> 64 ;
65 [label="gini = 0.63\nsamples = 73\nvalue = [36, 52, 22]", fillcolor="#d4f9e4"] ;
64 -> 65 ;
66 [label="gini = 0.64\nsamples = 3260\nvalue = [1514, 1293, 2423]", fillcolor="#e0cff9"] ;
64 -> 66 ;
67 [label="average_rating_hometeam <= 73.77\ngini = 0.62\nsamples = 293\nvalue = [73, 187, 202]", fillcolor="#f8f4fe"] ;
51 -> 67 ;
68 [label="average_age_hometeam <= 29.32\ngini = 0.63\nsamples = 178\nvalue = [52, 134, 101]", fillcolor="#dcfae9"] ;
67 -> 68 ;
69 [label="average_age_awayteam <= 28.45\ngini = 0.62\nsamples = 172\nvalue = [45, 133, 100]", fillcolor="#dafae8"] ;
68 -> 69 ;
70 [label="gini = 0.59\nsamples = 149\nvalue = [33, 125, 84]", fillcolor="#ccf8de"] ;
69 -> 70 ;
71 [label="gini = 0.64\nsamples = 23\nvalue = [12, 8, 16]", fillcolor="#eadefb"] ;
69 -> 71 ;
72 [label="gini = 0.37\nsamples = 6\nvalue = [7, 1, 1]", fillcolor="#eca06a"] ;
68 -> 72 ;
73 [label="average_weight_awayteam <= 182.41\ngini = 0.56\nsamples = 115\nvalue = [21, 53, 101]", fillcolor="#cdb1f5"] ;
67 -> 73 ;
74 [label="average_rating_awayteam <= 72.68\ngini = 0.61\nsamples = 79\nvalue = [18, 45, 59]", fillcolor="#e8dbfa"] ;
73 -> 74 ;
75 [label="gini = 0.1\nsamples = 11\nvalue = [0, 1, 17]", fillcolor="#8845e7"] ;
74 -> 75 ;
76 [label="gini = 0.63\nsamples = 68\nvalue = [18, 44, 42]", fillcolor="#f9fefb"] ;
74 -> 76 ;
77 [label="average_weight_hometeam <= 176.0\ngini = 0.35\nsamples = 36\nvalue = [3, 8, 42]", fillcolor="#a069eb"] ;
73 -> 77 ;
78 [label="gini = 0.13\nsamples = 16\nvalue = [1, 1, 28]", fillcolor="#8a47e7"] ;
77 -> 78 ;
79 [label="gini = 0.53\nsamples = 20\nvalue = [2, 7, 14]", fillcolor="#c8a8f4"] ;
77 -> 79 ;
80 [label="stage <= 6.5\ngini = 0.52\nsamples = 826\nvalue = [260, 832, 204]", fillcolor="#92f1b9"] ;
50 -> 80 ;
81 [label="B365H <= 10.5\ngini = 0.61\nsamples = 124\nvalue = [57, 92, 33]", fillcolor="#c8f8dc"] ;
80 -> 81 ;
82 [label="average_rating_hometeam <= 67.9\ngini = 0.6\nsamples = 110\nvalue = [40, 85, 30]", fillcolor="#b2f5ce"] ;
81 -> 82 ;
83 [label="average_rating_awayteam <= 72.09\ngini = 0.48\nsamples = 47\nvalue = [12, 47, 10]", fillcolor="#85efb2"] ;
82 -> 83 ;
84 [label="gini = 0.56\nsamples = 23\nvalue = [12, 19, 3]", fillcolor="#c0f7d7"] ;
83 -> 84 ;
85 [label="gini = 0.32\nsamples = 24\nvalue = [0, 28, 7]", fillcolor="#6aeca0"] ;
83 -> 85 ;
86 [label="average_height_hometeam <= 184.09\ngini = 0.64\nsamples = 63\nvalue = [28, 38, 20]", fillcolor="#ddfbe9"] ;
82 -> 86 ;
87 [label="gini = 0.61\nsamples = 51\nvalue = [18, 35, 14]", fillcolor="#baf6d3"] ;
86 -> 87 ;
88 [label="gini = 0.6\nsamples = 12\nvalue = [10, 3, 6]", fillcolor="#f7d8c2"] ;
86 -> 88 ;
89 [label="average_height_awayteam <= 179.45\ngini = 0.52\nsamples = 14\nvalue = [17, 7, 3]", fillcolor="#f2c09c"] ;
81 -> 89 ;
90 [label="gini = 0.24\nsamples = 4\nvalue = [1, 6, 0]", fillcolor="#5ae996"] ;
89 -> 90 ;
91 [label="average_height_awayteam <= 182.18\ngini = 0.34\nsamples = 10\nvalue = [16, 1, 3]", fillcolor="#eb9f68"] ;
89 -> 91 ;
92 [label="gini = 0.12\nsamples = 8\nvalue = [14, 1, 0]", fillcolor="#e78a47"] ;
91 -> 92 ;
93 [label="gini = 0.48\nsamples = 2\nvalue = [2, 0, 3]", fillcolor="#d5bdf6"] ;
91 -> 93 ;
94 [label="average_rating_awayteam <= 75.68\ngini = 0.5\nsamples = 702\nvalue = [203, 740, 171]", fillcolor="#8af0b5"] ;
80 -> 94 ;
95 [label="average_height_awayteam <= 179.86\ngini = 0.55\nsamples = 317\nvalue = [93, 320, 111]", fillcolor="#9bf2bf"] ;
94 -> 95 ;
96 [label="average_rating_awayteam <= 73.82\ngini = 0.6\nsamples = 43\nvalue = [27, 38, 10]", fillcolor="#d2f9e2"] ;
95 -> 96 ;
97 [label="gini = 0.61\nsamples = 37\nvalue = [27, 25, 8]", fillcolor="#fef8f4"] ;
96 -> 97 ;
98 [label="gini = 0.23\nsamples = 6\nvalue = [0, 13, 2]", fillcolor="#57e994"] ;
96 -> 98 ;
99 [label="average_rating_awayteam <= 60.32\ngini = 0.53\nsamples = 274\nvalue = [66, 282, 101]", fillcolor="#98f1bd"] ;
95 -> 99 ;
100 [label="gini = 0.24\nsamples = 4\nvalue = [0, 1, 6]", fillcolor="#965ae9"] ;
99 -> 100 ;
101 [label="gini = 0.53\nsamples = 270\nvalue = [66, 281, 95]", fillcolor="#95f1bb"] ;
99 -> 101 ;
102 [label="B365A <= 2.35\ngini = 0.45\nsamples = 385\nvalue = [110, 420, 60]", fillcolor="#7feeae"] ;
94 -> 102 ;
103 [label="average_rating_hometeam <= 71.78\ngini = 0.44\nsamples = 378\nvalue = [104, 419, 57]", fillcolor="#7ceeac"] ;
102 -> 103 ;
104 [label="gini = 0.36\nsamples = 196\nvalue = [40, 236, 24]", fillcolor="#6aeba0"] ;
103 -> 104 ;
105 [label="gini = 0.51\nsamples = 182\nvalue = [64, 183, 33]", fillcolor="#92f1ba"] ;
103 -> 105 ;
106 [label="gini = 0.54\nsamples = 7\nvalue = [6, 1, 3]", fillcolor="#f4c9aa"] ;
102 -> 106 ;
}