digraph Tree {
node [shape=box, style="filled, rounded", color="black", fontname="helvetica"] ;
edge [fontname="helvetica"] ;
0 [label="B365H <= 2.61\ngini = 0.64\nsamples = 11232\nvalue = [5227, 4453, 8041]", fillcolor="#e3d2f9"] ;
1 [label="B365H <= 1.74\ngini = 0.6\nsamples = 7942\nvalue = [2611, 3107, 6791]", fillcolor="#ceb1f5"] ;
0 -> 1 [labeldistance=2.5, labelangle=45, headlabel="True"] ;
2 [label="B365D <= 4.9\ngini = 0.48\nsamples = 3193\nvalue = [642, 951, 3442]", fillcolor="#b286ef"] ;
1 -> 2 ;
3 [label="average_age_awayteam <= 29.5\ngini = 0.54\nsamples = 2122\nvalue = [526, 760, 2071]", fillcolor="#bf9bf2"] ;
2 -> 3 ;
4 [label="B365A <= 9.25\ngini = 0.54\nsamples = 2075\nvalue = [516, 726, 2046]", fillcolor="#be99f2"] ;
3 -> 4 ;
5 [label="gini = 0.55\nsamples = 1982\nvalue = [512, 698, 1925]", fillcolor="#c09bf2"] ;
4 -> 5 ;
6 [label="gini = 0.34\nsamples = 93\nvalue = [4, 28, 121]", fillcolor="#a16cec"] ;
4 -> 6 ;
7 [label="average_age_hometeam <= 24.32\ngini = 0.6\nsamples = 47\nvalue = [10, 34, 25]", fillcolor="#d6fae5"] ;
3 -> 7 ;
8 [label="gini = 0.22\nsamples = 4\nvalue = [1, 0, 7]", fillcolor="#9355e9"] ;
7 -> 8 ;
9 [label="gini = 0.58\nsamples = 43\nvalue = [9, 34, 18]", fillcolor="#b5f5d0"] ;
7 -> 9 ;
10 [label="B365D <= 6.12\ngini = 0.31\nsamples = 1071\nvalue = [116, 191, 1371]", fillcolor="#9b62ea"] ;
2 -> 10 ;
11 [label="average_weight_hometeam <= 172.05\ngini = 0.37\nsamples = 632\nvalue = [94, 130, 770]", fillcolor="#a26cec"] ;
10 -> 11 ;
12 [label="gini = 0.34\nsamples = 386\nvalue = [64, 57, 480]", fillcolor="#9d66eb"] ;
11 -> 12 ;
13 [label="gini = 0.42\nsamples = 246\nvalue = [30, 73, 290]", fillcolor="#aa79ed"] ;
11 -> 13 ;
14 [label="B365H <= 1.11\ngini = 0.22\nsamples = 439\nvalue = [22, 61, 601]", fillcolor="#9253e8"] ;
10 -> 14 ;
15 [label="gini = 0.04\nsamples = 79\nvalue = [0, 2, 108]", fillcolor="#833de5"] ;
14 -> 15 ;
16 [label="gini = 0.25\nsamples = 360\nvalue = [22, 59, 493]", fillcolor="#9558e9"] ;
14 -> 16 ;
17 [label="B365A <= 3.55\ngini = 0.65\nsamples = 4749\nvalue = [1969, 2156, 3349]", fillcolor="#e3d3f9"] ;
1 -> 17 ;
18 [label="average_rating_awayteam <= 68.95\ngini = 0.65\nsamples = 2576\nvalue = [1201, 1125, 1694]", fillcolor="#e9dcfa"] ;
17 -> 18 ;
19 [label="average_rating_hometeam <= 67.86\ngini = 0.66\nsamples = 890\nvalue = [467, 367, 551]", fillcolor="#f3edfd"] ;
18 -> 19 ;
20 [label="gini = 0.66\nsamples = 751\nvalue = [429, 303, 441]", fillcolor="#fdfcff"] ;
19 -> 20 ;
21 [label="gini = 0.61\nsamples = 139\nvalue = [38, 64, 110]", fillcolor="#d8c1f7"] ;
19 -> 21 ;
22 [label="B365A <= 2.95\ngini = 0.65\nsamples = 1686\nvalue = [734, 758, 1143]", fillcolor="#e5d6fa"] ;
18 -> 22 ;
23 [label="gini = 0.64\nsamples = 450\nvalue = [252, 150, 312]", fillcolor="#efe5fc"] ;
22 -> 23 ;
24 [label="gini = 0.65\nsamples = 1236\nvalue = [482, 608, 831]", fillcolor="#eaddfb"] ;
22 -> 24 ;
25 [label="last_three_matches_awayteam <= 4.5\ngini = 0.63\nsamples = 2173\nvalue = [768, 1031, 1655]", fillcolor="#dfccf8"] ;
17 -> 25 ;
26 [label="average_weight_hometeam <= 185.41\ngini = 0.64\nsamples = 1491\nvalue = [550, 725, 1048]", fillcolor="#e6d7fa"] ;
25 -> 26 ;
27 [label="gini = 0.64\nsamples = 1486\nvalue = [550, 725, 1038]", fillcolor="#e6d8fa"] ;
26 -> 27 ;
28 [label="gini = 0.0\nsamples = 5\nvalue = [0, 0, 10]", fillcolor="#8139e5"] ;
26 -> 28 ;
29 [label="average_age_awayteam <= 22.86\ngini = 0.6\nsamples = 682\nvalue = [218, 306, 607]", fillcolor="#d1b7f6"] ;
25 -> 29 ;
30 [label="gini = 0.44\nsamples = 9\nvalue = [13, 2, 3]", fillcolor="#eeab7b"] ;
29 -> 30 ;
31 [label="gini = 0.6\nsamples = 673\nvalue = [205, 304, 604]", fillcolor="#d0b6f5"] ;
29 -> 31 ;
32 [label="B365A <= 1.98\ngini = 0.62\nsamples = 3290\nvalue = [2616, 1346, 1250]", fillcolor="#f6d6be"] ;
0 -> 32 [labeldistance=2.5, labelangle=-45, headlabel="False"] ;
33 [label="B365H <= 6.38\ngini = 0.55\nsamples = 1425\nvalue = [1390, 496, 375]", fillcolor="#f2bf9b"] ;
32 -> 33 ;
34 [label="average_height_hometeam <= 183.68\ngini = 0.59\nsamples = 889\nvalue = [803, 338, 281]", fillcolor="#f4c9aa"] ;
33 -> 34 ;
35 [label="stage <= 4.5\ngini = 0.57\nsamples = 760\nvalue = [710, 292, 214]", fillcolor="#f3c6a5"] ;
34 -> 35 ;
36 [label="gini = 0.63\nsamples = 88\nvalue = [65, 53, 27]", fillcolor="#fcefe5"] ;
35 -> 36 ;
37 [label="gini = 0.56\nsamples = 672\nvalue = [645, 239, 187]", fillcolor="#f2c29e"] ;
35 -> 37 ;
38 [label="average_weight_awayteam <= 174.86\ngini = 0.64\nsamples = 129\nvalue = [93, 46, 67]", fillcolor="#fae7da"] ;
34 -> 38 ;
39 [label="gini = 0.6\nsamples = 86\nvalue = [73, 24, 38]", fillcolor="#f6d2b8"] ;
38 -> 39 ;
40 [label="gini = 0.66\nsamples = 43\nvalue = [20, 22, 29]", fillcolor="#ede3fb"] ;
38 -> 40 ;
41 [label="average_height_hometeam <= 186.05\ngini = 0.46\nsamples = 536\nvalue = [587, 158, 94]", fillcolor="#efb082"] ;
33 -> 41 ;
42 [label="average_height_hometeam <= 181.32\ngini = 0.46\nsamples = 531\nvalue = [586, 158, 89]", fillcolor="#efaf81"] ;
41 -> 42 ;
43 [label="gini = 0.4\nsamples = 251\nvalue = [307, 70, 30]", fillcolor="#eda674"] ;
42 -> 43 ;
44 [label="gini = 0.51\nsamples = 280\nvalue = [279, 88, 59]", fillcolor="#f0b88f"] ;
42 -> 44 ;
45 [label="last_three_matches_hometeam <= 1.5\ngini = 0.28\nsamples = 5\nvalue = [1, 0, 5]", fillcolor="#9a61ea"] ;
41 -> 45 ;
46 [label="gini = 0.5\nsamples = 2\nvalue = [1, 0, 1]", fillcolor="#ffffff"] ;
45 -> 46 ;
47 [label="gini = 0.0\nsamples = 3\nvalue = [0, 0, 4]", fillcolor="#8139e5"] ;
45 -> 47 ;
48 [label="average_weight_awayteam <= 168.05\ngini = 0.66\nsamples = 1865\nvalue = [1226, 850, 875]", fillcolor="#fbeade"] ;
32 -> 48 ;
49 [label="B365H <= 2.88\ngini = 0.64\nsamples = 671\nvalue = [499, 299, 266]", fillcolor="#f8decb"] ;
48 -> 49 ;
50 [label="average_age_hometeam <= 24.95\ngini = 0.67\nsamples = 198\nvalue = [102, 106, 103]", fillcolor="#fcfffd"] ;
49 -> 50 ;
51 [label="gini = 0.61\nsamples = 40\nvalue = [28, 9, 22]", fillcolor="#fbebdf"] ;
50 -> 51 ;
52 [label="gini = 0.66\nsamples = 158\nvalue = [74, 97, 81]", fillcolor="#ecfdf3"] ;
50 -> 52 ;
53 [label="B365A <= 2.23\ngini = 0.61\nsamples = 473\nvalue = [397, 193, 163]", fillcolor="#f6d1b7"] ;
49 -> 53 ;
54 [label="gini = 0.57\nsamples = 221\nvalue = [211, 85, 63]", fillcolor="#f3c5a4"] ;
53 -> 54 ;
55 [label="gini = 0.64\nsamples = 252\nvalue = [186, 108, 100]", fillcolor="#f8ddc9"] ;
53 -> 55 ;
56 [label="B365H <= 4.05\ngini = 0.66\nsamples = 1194\nvalue = [727, 551, 609]", fillcolor="#fdf3ed"] ;
48 -> 56 ;
57 [label="average_rating_awayteam <= 71.59\ngini = 0.66\nsamples = 1187\nvalue = [726, 551, 600]", fillcolor="#fcf3eb"] ;
56 -> 57 ;
58 [label="gini = 0.67\nsamples = 339\nvalue = [161, 184, 173]", fillcolor="#f9fefb"] ;
57 -> 58 ;
59 [label="gini = 0.66\nsamples = 848\nvalue = [565, 367, 427]", fillcolor="#fbece2"] ;
57 -> 59 ;
60 [label="average_rating_hometeam <= 68.5\ngini = 0.18\nsamples = 7\nvalue = [1, 0, 9]", fillcolor="#8f4fe8"] ;
56 -> 60 ;
61 [label="gini = 0.0\nsamples = 1\nvalue = [1, 0, 0]", fillcolor="#e58139"] ;
60 -> 61 ;
62 [label="gini = 0.0\nsamples = 6\nvalue = [0, 0, 9]", fillcolor="#8139e5"] ;
60 -> 62 ;
}